-0.040000 0.893000 -0.576000
-0.014210 0.884360 -0.575970
0.011580 0.875720 -0.575940
0.037370 0.867080 -0.575910
0.062430 0.858440 -0.575870
0.087490 0.849800 -0.575830
0.111830 0.841180 -0.575780
0.135720 0.832580 -0.575720
0.158740 0.824020 -0.575670
0.180280 0.815550 -0.575619
0.200770 0.807160 -0.575569
0.221260 0.798770 -0.575519
0.241750 0.790380 -0.575469
0.261600 0.782060 -0.575429
0.281450 0.773740 -0.575389
0.301300 0.765420 -0.575349
0.321150 0.757101 -0.575309
0.341000 0.748781 -0.575269
0.360250 0.740581 -0.575219
0.379500 0.732381 -0.575169
0.396730 0.724601 -0.575149
0.413960 0.716821 -0.575129
0.431190 0.709041 -0.575109
0.447830 0.701420 -0.575079
0.464471 0.693800 -0.575049
0.480211 0.686450 -0.575009
0.495951 0.679100 -0.574969
0.511001 0.671960 -0.574939
0.526050 0.664820 -0.574908
0.541100 0.657680 -0.574878
0.554380 0.651170 -0.574848
0.567660 0.644660 -0.574818
0.580320 0.638390 -0.574778
0.591450 0.632720 -0.574738
0.602580 0.627050 -0.574698
0.612789 0.621780 -0.574638
0.622999 0.616510 -0.574578
0.632679 0.611470 -0.574528
0.640549 0.607240 -0.574508
0.648419 0.603010 -0.574488
0.655429 0.599190 -0.574478
0.662439 0.595370 -0.574468
0.669449 0.591550 -0.574458
0.676459 0.587730 -0.574448
0.683119 0.584090 -0.574448
0.689088 0.580820 -0.574458
0.695058 0.577550 -0.574468
0.701028 0.574280 -0.574478
0.705698 0.571760 -0.574488
0.710368 0.569240 -0.574498
0.715038 0.566720 -0.574508
0.719708 0.564200 -0.574518
0.724378 0.561680 -0.574528
0.727278 0.560270 -0.574538
0.730178 0.558861 -0.574548
0.733078 0.557451 -0.574558
0.735248 0.556531 -0.574558
0.736858 0.555991 -0.574548
0.738468 0.555451 -0.574538
0.740078 0.554911 -0.574528
0.741688 0.554371 -0.574518
0.743298 0.553831 -0.574508
0.744908 0.553291 -0.574498
0.746518 0.552751 -0.574488
0.748128 0.552211 -0.574478
0.749738 0.551671 -0.574468
0.751347 0.551131 -0.574458
0.752957 0.550591 -0.574448
0.754567 0.550051 -0.574438
0.755357 0.550151 -0.574418
0.756147 0.550251 -0.574398
0.756937 0.550351 -0.574378
0.757727 0.550451 -0.574358
0.758517 0.550551 -0.574338
0.759307 0.550651 -0.574318
0.760097 0.550751 -0.574298
0.760027 0.551541 -0.574288
0.759957 0.552331 -0.574278
0.759888 0.553121 -0.574268
0.759818 0.553911 -0.574258
0.759748 0.554701 -0.574248
0.759678 0.555491 -0.574238
0.759608 0.556281 -0.574228
0.759538 0.557071 -0.574218
0.759468 0.557861 -0.574208
0.759398 0.558651 -0.574198
0.759328 0.559441 -0.574188
0.759258 0.560231 -0.574178
0.759188 0.561021 -0.574167
0.759118 0.561811 -0.574157
0.759048 0.562601 -0.574147
0.758978 0.563391 -0.574137
0.758908 0.564181 -0.574127
0.758838 0.564971 -0.574117
0.758768 0.565761 -0.574107
0.758698 0.566551 -0.574097
0.758628 0.567341 -0.574087
0.758558 0.568131 -0.574077
0.758488 0.568921 -0.574067
0.758418 0.569711 -0.574057
0.758348 0.570501 -0.574047
0.758278 0.571291 -0.574037
0.758208 0.572081 -0.574027
0.758138 0.572871 -0.574017
0.758068 0.573661 -0.574007
0.757998 0.574451 -0.573997
0.757928 0.575241 -0.573987
0.757858 0.576031 -0.573977
0.757788 0.576821 -0.573967
0.757718 0.577611 -0.573957
0.757648 0.578401 -0.573947
0.757578 0.579191 -0.573937
0.757508 0.579981 -0.573927
0.757438 0.580771 -0.573917
0.757368 0.581561 -0.573907
0.757298 0.582351 -0.573897
0.757228 0.583141 -0.573887
0.757158 0.583931 -0.573877
0.757088 0.584721 -0.573867
0.757019 0.585511 -0.573857
0.756949 0.586301 -0.573847
0.756879 0.587091 -0.573837
0.756809 0.587881 -0.573827
0.756739 0.588671 -0.573817
0.756669 0.589461 -0.573807
0.756599 0.590251 -0.573797
0.756529 0.591041 -0.573787
0.756459 0.591831 -0.573777
0.756389 0.592621 -0.573767
0.756319 0.593411 -0.573757
0.756249 0.594201 -0.573747
0.756179 0.594991 -0.573737
0.756109 0.595781 -0.573727
0.756039 0.596571 -0.573717
0.755969 0.597361 -0.573707
0.755899 0.598151 -0.573697
0.755829 0.598941 -0.573687
0.755759 0.599731 -0.573677
0.755689 0.600521 -0.573667
0.755619 0.601311 -0.573657
0.755549 0.602101 -0.573647
0.755479 0.602891 -0.573637
0.755409 0.603681 -0.573627
0.755339 0.604471 -0.573617
0.755269 0.605261 -0.573607
0.755199 0.606051 -0.573597
0.755129 0.606841 -0.573587
0.755059 0.607631 -0.573577
0.754989 0.608421 -0.573567
0.754919 0.609211 -0.573557
0.754849 0.610001 -0.573547
0.754779 0.610791 -0.573537
0.754709 0.611581 -0.573527
0.754639 0.612371 -0.573517
0.754569 0.613161 -0.573507
0.754499 0.613951 -0.573497
0.754429 0.614741 -0.573487
0.754359 0.615531 -0.573477
0.754289 0.616321 -0.573467
0.754219 0.617111 -0.573457
0.754149 0.617901 -0.573447
0.754080 0.618691 -0.573436
0.754010 0.619481 -0.573426
0.753940 0.620271 -0.573416
0.753870 0.621061 -0.573406
0.753800 0.621851 -0.573396
0.753730 0.622641 -0.573386
0.753660 0.623431 -0.573376
0.753590 0.624221 -0.573366
0.753520 0.625011 -0.573356
0.753450 0.625801 -0.573346
0.753380 0.626591 -0.573336
0.753310 0.627381 -0.573326
0.753240 0.628171 -0.573316
0.753170 0.628961 -0.573306
0.753100 0.629751 -0.573296
0.753030 0.630541 -0.573286
0.752960 0.631331 -0.573276
0.752890 0.632121 -0.573266
0.752820 0.632911 -0.573256
0.752750 0.633701 -0.573246
0.752680 0.634491 -0.573236
0.752610 0.635281 -0.573226
0.752540 0.636071 -0.573216
0.752470 0.636861 -0.573206
0.752400 0.637651 -0.573196
0.752330 0.638441 -0.573186
0.752260 0.639231 -0.573176
0.752190 0.640021 -0.573166
0.752120 0.640811 -0.573156
0.752050 0.641601 -0.573146
0.751980 0.642391 -0.573136
0.751910 0.643181 -0.573126
0.751840 0.643971 -0.573116
0.751770 0.644761 -0.573106
0.751700 0.645551 -0.573096
0.751630 0.646341 -0.573086
0.751560 0.647131 -0.573076
0.751490 0.647921 -0.573066
0.751420 0.648711 -0.573056
0.751350 0.649501 -0.573046
0.751280 0.650291 -0.573036
0.751211 0.651081 -0.573026
0.751141 0.651871 -0.573016
0.751071 0.652661 -0.573006
0.751001 0.653451 -0.572996
0.750931 0.654241 -0.572986
0.750861 0.655031 -0.572976
0.750791 0.655821 -0.572966
0.750721 0.656611 -0.572956
0.750651 0.657401 -0.572946
0.750581 0.658191 -0.572936
0.750511 0.658981 -0.572926
0.750441 0.659771 -0.572916
0.750371 0.660561 -0.572906
0.750301 0.661351 -0.572896
0.750231 0.662141 -0.572886
0.750161 0.662931 -0.572876
0.750091 0.663721 -0.572866
0.750021 0.664511 -0.572856
0.749951 0.665301 -0.572846
0.749881 0.666091 -0.572836
0.749811 0.666881 -0.572826
0.749741 0.667671 -0.572816
0.749671 0.668461 -0.572806
0.749601 0.669251 -0.572796
0.749531 0.670041 -0.572786
0.749461 0.670831 -0.572776
0.749391 0.671621 -0.572766
0.749321 0.672411 -0.572756
0.749251 0.673201 -0.572746
0.749181 0.673991 -0.572736
0.749111 0.674781 -0.572726
0.749041 0.675571 -0.572716
0.748971 0.676361 -0.572706
0.748901 0.677151 -0.572695
0.748831 0.677941 -0.572685
0.748761 0.678731 -0.572675
0.748691 0.679521 -0.572665
0.748621 0.680311 -0.572655
0.748551 0.681101 -0.572645
0.748481 0.681891 -0.572635
0.748411 0.682681 -0.572625
0.748342 0.683471 -0.572615
0.748272 0.684261 -0.572605
0.748202 0.685051 -0.572595
0.748132 0.685841 -0.572585
0.748062 0.686631 -0.572575
0.747992 0.687421 -0.572565
0.747922 0.688211 -0.572555
0.747852 0.689001 -0.572545
0.747782 0.689791 -0.572535
0.747712 0.690581 -0.572525
0.747642 0.691371 -0.572515
0.747572 0.692161 -0.572505
0.747502 0.692951 -0.572495
0.747432 0.693741 -0.572485
0.747362 0.694531 -0.572475
0.747292 0.695321 -0.572465
0.747222 0.696111 -0.572455
0.747152 0.696901 -0.572445
0.747082 0.697691 -0.572435
0.747012 0.698481 -0.572425
0.746942 0.699271 -0.572415
0.746872 0.700061 -0.572405
0.746802 0.700851 -0.572395
0.746732 0.701641 -0.572385
0.746662 0.702431 -0.572375
0.746592 0.703221 -0.572365
0.746522 0.704011 -0.572355
0.746452 0.704801 -0.572345
0.746382 0.705591 -0.572335
0.746312 0.706381 -0.572325
0.746242 0.707171 -0.572315
0.746172 0.707961 -0.572305
0.746102 0.708751 -0.572295
0.746032 0.709541 -0.572285
0.745962 0.710331 -0.572275
0.745892 0.711121 -0.572265
0.745822 0.711911 -0.572255
0.745752 0.712701 -0.572245
0.745682 0.713491 -0.572235
0.745612 0.714281 -0.572225
0.745542 0.715071 -0.572215
0.745472 0.715861 -0.572205
0.745403 0.716651 -0.572195
0.745333 0.717441 -0.572185
0.745263 0.718231 -0.572175
0.745193 0.719021 -0.572165
0.745123 0.719811 -0.572155
0.745053 0.720601 -0.572145
0.744983 0.721391 -0.572135
0.744913 0.722181 -0.572125
0.744843 0.722971 -0.572115
0.744773 0.723761 -0.572105
0.744703 0.724551 -0.572095
0.744633 0.725341 -0.572085
0.744563 0.726131 -0.572075
0.744493 0.726921 -0.572065
0.744423 0.727711 -0.572055
0.744353 0.728501 -0.572045
0.744283 0.729291 -0.572035
0.744213 0.730081 -0.572025
0.744143 0.730871 -0.572015
0.744073 0.731661 -0.572005
0.744003 0.732451 -0.571995
0.743933 0.733241 -0.571985
0.743863 0.734031 -0.571975
0.743793 0.734821 -0.571965
0.743723 0.735611 -0.571954
0.743653 0.736401 -0.571944
0.743583 0.737191 -0.571934
0.743513 0.737981 -0.571924
0.743443 0.738771 -0.571914
0.743373 0.739561 -0.571904
0.743303 0.740351 -0.571894
0.743233 0.741141 -0.571884
0.743163 0.741931 -0.571874
0.743093 0.742721 -0.571864
0.743023 0.743511 -0.571854
0.742953 0.744301 -0.571844
0.742883 0.745091 -0.571834
0.742813 0.745881 -0.571824
0.742743 0.746671 -0.571814
0.742673 0.747461 -0.571804
0.742603 0.748251 -0.571794
0.742534 0.749041 -0.571784
0.742464 0.749831 -0.571774
0.742394 0.750621 -0.571764
0.742324 0.751411 -0.571754
0.742254 0.752201 -0.571744
0.742184 0.752991 -0.571734
0.742114 0.753781 -0.571724
0.742044 0.754571 -0.571714
0.741974 0.755361 -0.571704
0.741904 0.756151 -0.571694
0.741834 0.756941 -0.571684
0.741764 0.757731 -0.571674
0.741694 0.758521 -0.571664
0.741624 0.759311 -0.571654
0.741554 0.760101 -0.571644
0.741484 0.760891 -0.571634
0.741414 0.761681 -0.571624
0.741344 0.762471 -0.571614
0.741274 0.763261 -0.571604
0.741204 0.764051 -0.571594
0.741134 0.764841 -0.571584
0.741064 0.765631 -0.571574
0.740994 0.766421 -0.571564
0.740924 0.767211 -0.571554
0.740854 0.768001 -0.571544
0.740784 0.768791 -0.571534
0.740714 0.769581 -0.571524
0.740644 0.770371 -0.571514
0.740574 0.771161 -0.571504
0.740504 0.771951 -0.571494
0.740434 0.772741 -0.571484
0.740364 0.773531 -0.571474
0.740294 0.774321 -0.571464
0.740224 0.775111 -0.571454
0.740154 0.775901 -0.571444
0.740084 0.776691 -0.571434
0.740014 0.777481 -0.571424
0.739944 0.778271 -0.571414
0.739874 0.779061 -0.571404
0.739804 0.779851 -0.571394
0.739734 0.780641 -0.571384
0.739664 0.781431 -0.571374
0.739595 0.782221 -0.571364
0.739525 0.783011 -0.571354
0.739455 0.783801 -0.571344
0.739385 0.784591 -0.571334
0.739315 0.785381 -0.571324
0.739245 0.786171 -0.571314
0.739175 0.786961 -0.571304
0.739105 0.787751 -0.571294
0.739035 0.788541 -0.571284
0.738965 0.789331 -0.571274
0.738895 0.790121 -0.571264
0.738825 0.790911 -0.571254
0.738755 0.791701 -0.571244
0.738685 0.792491 -0.571234
0.738615 0.793281 -0.571223
0.738545 0.794071 -0.571213
0.738475 0.794861 -0.571203
0.738405 0.795651 -0.571193
0.738335 0.796441 -0.571183
0.738265 0.797231 -0.571173
0.738195 0.798021 -0.571163
0.738125 0.798811 -0.571153
0.738055 0.799601 -0.571143
0.737985 0.800391 -0.571133
0.737915 0.801181 -0.571123
0.737845 0.801971 -0.571113
0.737775 0.802761 -0.571103
0.737705 0.803551 -0.571093
0.737635 0.804341 -0.571083
0.737565 0.805131 -0.571073
0.737495 0.805921 -0.571063
0.737425 0.806711 -0.571053
0.737355 0.807501 -0.571043
0.737285 0.808291 -0.571033
0.737215 0.809081 -0.571023
0.737145 0.809871 -0.571013
0.737075 0.810661 -0.571003
0.737005 0.811451 -0.570993
0.736935 0.812241 -0.570983
0.736865 0.813031 -0.570973
0.736795 0.813821 -0.570963
0.736726 0.814611 -0.570953
0.736656 0.815401 -0.570943
0.736586 0.816191 -0.570933
0.736516 0.816981 -0.570923
0.736446 0.817771 -0.570913
0.736376 0.818561 -0.570903
0.736306 0.819351 -0.570893
0.736236 0.820141 -0.570883
0.736166 0.820931 -0.570873
0.736096 0.821721 -0.570863
0.736026 0.822511 -0.570853
0.735956 0.823301 -0.570843
0.735886 0.824091 -0.570833
0.735816 0.824881 -0.570823
0.735746 0.825671 -0.570813
0.735676 0.826461 -0.570803
0.735606 0.827251 -0.570793
0.735536 0.828041 -0.570783
0.735466 0.828831 -0.570773
0.735396 0.829621 -0.570763
0.735326 0.830411 -0.570753
0.735256 0.831201 -0.570743
0.735186 0.831991 -0.570733
0.735116 0.832781 -0.570723
0.735046 0.833571 -0.570713
0.734976 0.834361 -0.570703
0.734906 0.835151 -0.570693
0.734836 0.835941 -0.570683
0.734766 0.836731 -0.570673
0.734696 0.837521 -0.570663
0.734626 0.838311 -0.570653
0.734556 0.839101 -0.570643
0.734486 0.839891 -0.570633
0.734416 0.840681 -0.570623
0.734346 0.841471 -0.570613
0.734276 0.842261 -0.570603
0.734206 0.843051 -0.570593
0.734136 0.843841 -0.570583
0.734066 0.844631 -0.570573
0.733996 0.845421 -0.570563
0.733926 0.846211 -0.570553
0.733856 0.847001 -0.570543
0.733787 0.847791 -0.570533
0.733717 0.848581 -0.570523
0.733647 0.849371 -0.570513
0.733577 0.850161 -0.570503
0.733507 0.850951 -0.570493
0.733437 0.851741 -0.570482
0.733367 0.852531 -0.570472
0.733297 0.853321 -0.570462
0.733227 0.854111 -0.570452
0.733157 0.854901 -0.570442
0.733087 0.855691 -0.570432
0.733017 0.856481 -0.570422
0.732947 0.857271 -0.570412
0.732877 0.858061 -0.570402
0.732807 0.858851 -0.570392
0.732737 0.859641 -0.570382
0.732667 0.860431 -0.570372
0.732597 0.861221 -0.570362
0.732527 0.862011 -0.570352
0.732457 0.862801 -0.570342
0.732387 0.863591 -0.570332
0.732317 0.864381 -0.570322
0.732247 0.865171 -0.570312
0.732177 0.865961 -0.570302
0.732107 0.866751 -0.570292
0.732037 0.867541 -0.570282
0.731967 0.868331 -0.570272
0.731897 0.869121 -0.570262
0.731827 0.869911 -0.570252
0.731757 0.870701 -0.570242
0.731687 0.871491 -0.570232
0.731617 0.872281 -0.570222
0.731547 0.873071 -0.570212
0.731477 0.873861 -0.570202
0.731407 0.874651 -0.570192
0.731337 0.875441 -0.570182
0.731267 0.876231 -0.570172
0.731197 0.877021 -0.570162
0.731127 0.877811 -0.570152
0.731057 0.878601 -0.570142
0.730987 0.879391 -0.570132
0.730918 0.880181 -0.570122
0.730848 0.880971 -0.570112
0.730778 0.881761 -0.570102
0.730708 0.882551 -0.570092
0.730638 0.883341 -0.570082
0.730568 0.884131 -0.570072
0.730498 0.884921 -0.570062
0.730428 0.885711 -0.570052
0.730358 0.886501 -0.570042
0.730288 0.887291 -0.570032
0.730218 0.888081 -0.570022
0.730148 0.888871 -0.570012
0.730078 0.889661 -0.570002
0.730008 0.890451 -0.569992
0.729938 0.891241 -0.569982
0.729868 0.892031 -0.569972
0.729798 0.892821 -0.569962
0.729728 0.893611 -0.569952
0.729658 0.894401 -0.569942
0.729588 0.895191 -0.569932
0.729518 0.895981 -0.569922
0.729448 0.896771 -0.569912
0.729378 0.897561 -0.569902
0.729308 0.898351 -0.569892
0.729238 0.899141 -0.569882
0.729168 0.899931 -0.569872
0.729098 0.900721 -0.569862
0.729028 0.901511 -0.569852
0.728958 0.902301 -0.569842
0.728888 0.903091 -0.569832
0.728818 0.903881 -0.569822
0.728748 0.904671 -0.569812
0.728678 0.905461 -0.569802
0.728608 0.906251 -0.569792
0.728538 0.907041 -0.569782
0.728468 0.907831 -0.569772
0.728398 0.908621 -0.569762
0.728328 0.909411 -0.569752
0.728258 0.910201 -0.569741
0.728188 0.910991 -0.569731
0.728118 0.911781 -0.569721
0.728049 0.912571 -0.569711
0.727979 0.913361 -0.569701
0.727909 0.914151 -0.569691
0.727839 0.914941 -0.569681
0.727769 0.915731 -0.569671
0.727699 0.916521 -0.569661
0.727629 0.917311 -0.569651
0.727559 0.918101 -0.569641
0.727489 0.918891 -0.569631
0.727419 0.919681 -0.569621
0.727349 0.920471 -0.569611
0.727279 0.921261 -0.569601
0.727209 0.922051 -0.569591
0.727139 0.922841 -0.569581
0.727069 0.923631 -0.569571
0.726999 0.924421 -0.569561
0.726929 0.925211 -0.569551
0.726859 0.926001 -0.569541
0.726789 0.926791 -0.569531
0.726719 0.927581 -0.569521
0.726649 0.928371 -0.569511
0.726579 0.929161 -0.569501
0.726509 0.929951 -0.569491
0.726439 0.930741 -0.569481
0.726369 0.931531 -0.569471
0.726299 0.932321 -0.569461
0.726229 0.933111 -0.569451
0.726159 0.933901 -0.569441
0.726089 0.934691 -0.569431
0.726019 0.935481 -0.569421
0.725949 0.936271 -0.569411
0.725879 0.937061 -0.569401
0.725809 0.937851 -0.569391
0.725739 0.938641 -0.569381
0.725669 0.939431 -0.569371
0.725599 0.940221 -0.569361
0.725529 0.941011 -0.569351
0.725459 0.941801 -0.569341
0.725389 0.942591 -0.569331
0.725319 0.943381 -0.569321
0.725249 0.944171 -0.569311
0.725179 0.944961 -0.569301
0.725110 0.945751 -0.569291
0.725040 0.946541 -0.569281
0.724970 0.947331 -0.569271
0.724900 0.948121 -0.569261
0.724830 0.948911 -0.569251
0.724760 0.949701 -0.569241
0.724690 0.950491 -0.569231
0.724620 0.951281 -0.569221
0.724550 0.952071 -0.569211
0.724480 0.952861 -0.569201
0.724410 0.953651 -0.569191
0.724340 0.954441 -0.569181
0.724270 0.955231 -0.569171
0.724200 0.956021 -0.569161
0.724130 0.956811 -0.569151
0.724060 0.957601 -0.569141
0.723990 0.958391 -0.569131
0.723920 0.959181 -0.569121
0.723850 0.959971 -0.569111
0.723780 0.960761 -0.569101
0.723710 0.961551 -0.569091
0.723640 0.962341 -0.569081
0.723570 0.963131 -0.569071
0.723500 0.963921 -0.569061
0.723430 0.964711 -0.569051
0.723360 0.965501 -0.569041
0.723290 0.966291 -0.569031
0.723220 0.967081 -0.569021
0.723150 0.967871 -0.569010
0.723080 0.968661 -0.569000
0.723010 0.969451 -0.568990
0.722940 0.970241 -0.568980
0.722870 0.971031 -0.568970
0.722800 0.971821 -0.568960
0.722730 0.972611 -0.568950
0.722660 0.973401 -0.568940
0.722590 0.974191 -0.568930
0.722520 0.974981 -0.568920
0.722450 0.975771 -0.568910
0.722380 0.976561 -0.568900
0.722310 0.977351 -0.568890
0.722241 0.978141 -0.568880
0.722171 0.978931 -0.568870
0.722101 0.979721 -0.568860
0.722031 0.980511 -0.568850
0.721961 0.981301 -0.568840
0.721891 0.982091 -0.568830
0.721821 0.982881 -0.568820
0.721751 0.983671 -0.568810
0.721681 0.984461 -0.568800
0.721611 0.985251 -0.568790
0.721541 0.986041 -0.568780
0.721471 0.986831 -0.568770
0.721401 0.987621 -0.568760
0.721331 0.988411 -0.568750
0.721261 0.989201 -0.568740
0.721191 0.989991 -0.568730
0.721121 0.990781 -0.568720
0.721051 0.991571 -0.568710
0.720981 0.992361 -0.568700
0.720911 0.993151 -0.568690
0.720841 0.993941 -0.568680
0.720771 0.994731 -0.568670
0.720701 0.995521 -0.568660
0.720631 0.996311 -0.568650
0.720561 0.997101 -0.568640
0.720491 0.997891 -0.568630
0.720421 0.998681 -0.568620
0.720351 0.999471 -0.568610
0.720281 1.000261 -0.568600
0.720211 1.001051 -0.568590
0.720141 1.001841 -0.568580
0.720071 1.002631 -0.568570
0.720001 1.003421 -0.568560
0.719931 1.004211 -0.568550
0.719861 1.005001 -0.568540
0.719791 1.005791 -0.568530
0.719721 1.006581 -0.568520
0.719651 1.007371 -0.568510
0.719581 1.008161 -0.568500
0.719511 1.008951 -0.568490
0.719441 1.009741 -0.568480
0.719371 1.010531 -0.568470
0.719302 1.011321 -0.568460
0.719232 1.012111 -0.568450
0.719162 1.012901 -0.568440
0.719092 1.013691 -0.568430
0.719022 1.014481 -0.568420
0.718952 1.015271 -0.568410
0.718882 1.016061 -0.568400
0.718812 1.016851 -0.568390
0.718742 1.017641 -0.568380
0.718672 1.018431 -0.568370
0.718602 1.019221 -0.568360
0.718532 1.020011 -0.568350
0.718462 1.020801 -0.568340
0.718392 1.021591 -0.568330
0.718322 1.022381 -0.568320
0.718252 1.023171 -0.568310
0.718182 1.023961 -0.568300
0.718112 1.024751 -0.568290
0.718042 1.025541 -0.568280
0.717972 1.026331 -0.568269
0.717902 1.027121 -0.568259
0.717832 1.027911 -0.568249
0.717762 1.028701 -0.568239
0.717692 1.029491 -0.568229
0.717622 1.030281 -0.568219
0.717552 1.031071 -0.568209
0.717482 1.031861 -0.568199
0.717412 1.032651 -0.568189
0.717342 1.033441 -0.568179
0.717272 1.034231 -0.568169
0.717202 1.035021 -0.568159
0.717132 1.035811 -0.568149
0.717062 1.036601 -0.568139
0.716992 1.037391 -0.568129
0.716922 1.038181 -0.568119
0.716852 1.038971 -0.568109
0.716782 1.039761 -0.568099
0.716712 1.040551 -0.568089
0.716642 1.041341 -0.568079
0.716572 1.042131 -0.568069
0.716502 1.042921 -0.568059
0.716433 1.043711 -0.568049
0.716363 1.044501 -0.568039
0.716293 1.045291 -0.568029
0.716223 1.046081 -0.568019
0.716153 1.046871 -0.568009
0.716083 1.047661 -0.567999
0.716013 1.048451 -0.567989
0.715943 1.049241 -0.567979
0.715873 1.050031 -0.567969
0.715803 1.050821 -0.567959
0.715733 1.051611 -0.567949
0.715663 1.052401 -0.567939
0.715593 1.053191 -0.567929
0.715523 1.053981 -0.567919
0.715453 1.054771 -0.567909
0.715383 1.055561 -0.567899
0.715313 1.056351 -0.567889
0.715243 1.057141 -0.567879
0.715173 1.057931 -0.567869
0.715103 1.058721 -0.567859
0.715033 1.059511 -0.567849
0.714963 1.060301 -0.567839
0.714893 1.061091 -0.567829
0.714823 1.061881 -0.567819
0.714753 1.062671 -0.567809
0.714683 1.063461 -0.567799
0.714613 1.064251 -0.567789
0.714543 1.065041 -0.567779
0.714473 1.065831 -0.567769
0.714403 1.066621 -0.567759
0.714333 1.067411 -0.567749
0.714263 1.068201 -0.567739
0.714193 1.068991 -0.567729
0.714123 1.069781 -0.567719
0.714053 1.070571 -0.567709
0.713983 1.071361 -0.567699
0.713913 1.072151 -0.567689
0.713843 1.072941 -0.567679
0.713773 1.073731 -0.567669
0.713703 1.074521 -0.567659
0.713633 1.075311 -0.567649
0.713564 1.076101 -0.567639
0.713494 1.076891 -0.567629
0.713424 1.077681 -0.567619
0.713354 1.078471 -0.567609
0.713284 1.079261 -0.567599
0.713214 1.080051 -0.567589
0.713144 1.080841 -0.567579
0.713074 1.081631 -0.567569
0.713004 1.082421 -0.567559
0.712934 1.083211 -0.567549
0.712864 1.084001 -0.567538
0.712794 1.084791 -0.567528
0.712724 1.085581 -0.567518
0.712654 1.086371 -0.567508
0.712584 1.087161 -0.567498
0.712514 1.087951 -0.567488
0.712444 1.088741 -0.567478
0.712374 1.089531 -0.567468
0.712304 1.090321 -0.567458
0.712234 1.091111 -0.567448
0.712164 1.091901 -0.567438
0.712094 1.092691 -0.567428
0.712024 1.093481 -0.567418
0.711954 1.094271 -0.567408
0.711884 1.095061 -0.567398
0.711814 1.095851 -0.567388
0.711744 1.096641 -0.567378
0.711674 1.097431 -0.567368
0.711604 1.098221 -0.567358
0.711534 1.099011 -0.567348
0.711464 1.099801 -0.567338
0.711394 1.100591 -0.567328
0.711324 1.101381 -0.567318
0.711254 1.102171 -0.567308
0.711184 1.102961 -0.567298
0.711114 1.103751 -0.567288
0.711044 1.104541 -0.567278
0.710974 1.105331 -0.567268
0.710904 1.106121 -0.567258
0.710834 1.106911 -0.567248
0.710764 1.107701 -0.567238
0.710694 1.108491 -0.567228
0.710625 1.109281 -0.567218
0.710555 1.110071 -0.567208
0.710485 1.110861 -0.567198
0.710415 1.111651 -0.567188
0.710345 1.112441 -0.567178
0.710275 1.113231 -0.567168
0.710205 1.114021 -0.567158
0.710135 1.114811 -0.567148
0.710065 1.115601 -0.567138
0.709995 1.116391 -0.567128
0.709925 1.117181 -0.567118
0.709855 1.117971 -0.567108
0.709785 1.118761 -0.567098
0.709715 1.119551 -0.567088
0.709645 1.120341 -0.567078
0.709575 1.121131 -0.567068
0.709505 1.121921 -0.567058
0.709435 1.122711 -0.567048
0.709365 1.123501 -0.567038
0.709295 1.124291 -0.567028
0.709225 1.125081 -0.567018
0.709155 1.125871 -0.567008
0.709085 1.126661 -0.566998
0.709015 1.127451 -0.566988
0.708945 1.128241 -0.566978
0.708875 1.129031 -0.566968
0.708805 1.129821 -0.566958
0.708735 1.130611 -0.566948
0.708665 1.131401 -0.566938
0.708595 1.132191 -0.566928
0.708525 1.132981 -0.566918
0.708455 1.133771 -0.566908
0.708385 1.134561 -0.566898
0.708315 1.135351 -0.566888
0.708245 1.136141 -0.566878
0.708175 1.136931 -0.566868
0.708105 1.137721 -0.566858
0.708035 1.138511 -0.566848
0.707965 1.139301 -0.566838
0.707895 1.140091 -0.566828
0.707825 1.140881 -0.566818
0.707756 1.141671 -0.566808
0.707686 1.142461 -0.566797
0.707616 1.143251 -0.566787
0.707546 1.144041 -0.566777
0.707476 1.144831 -0.566767
0.707406 1.145621 -0.566757
0.707336 1.146411 -0.566747
0.707266 1.147201 -0.566737
0.707196 1.147991 -0.566727
0.707126 1.148781 -0.566717
0.707056 1.149571 -0.566707
0.706986 1.150361 -0.566697
0.706916 1.151151 -0.566687
0.706846 1.151941 -0.566677
0.706776 1.152731 -0.566667
0.706706 1.153521 -0.566657
0.706636 1.154311 -0.566647
0.706566 1.155101 -0.566637
0.706496 1.155891 -0.566627
0.706426 1.156681 -0.566617
0.706356 1.157471 -0.566607
0.706286 1.158261 -0.566597
0.706216 1.159051 -0.566587
0.706146 1.159841 -0.566577
0.706076 1.160631 -0.566567
0.706006 1.161421 -0.566557
0.705936 1.162211 -0.566547
0.705866 1.163001 -0.566537
0.705796 1.163791 -0.566527
0.705726 1.164581 -0.566517
0.705656 1.165371 -0.566507
0.705586 1.166161 -0.566497
0.705516 1.166951 -0.566487
0.705446 1.167741 -0.566477
0.705376 1.168531 -0.566467
0.705306 1.169321 -0.566457
0.705236 1.170111 -0.566447
0.705166 1.170901 -0.566437
0.705096 1.171691 -0.566427
0.705026 1.172481 -0.566417
0.704956 1.173271 -0.566407
0.704886 1.174061 -0.566397
0.704817 1.174851 -0.566387
0.704747 1.175641 -0.566377
0.704677 1.176431 -0.566367
0.704607 1.177221 -0.566357
0.704537 1.178011 -0.566347
0.704467 1.178801 -0.566337
0.704397 1.179591 -0.566327
0.704327 1.180381 -0.566317
0.704257 1.181171 -0.566307
0.704187 1.181961 -0.566297
0.704117 1.182751 -0.566287
0.704047 1.183541 -0.566277
0.703977 1.184331 -0.566267
0.703907 1.185121 -0.566257
0.703837 1.185911 -0.566247
0.703767 1.186701 -0.566237
0.703697 1.187491 -0.566227
0.703627 1.188281 -0.566217
0.703557 1.189071 -0.566207
0.703487 1.189861 -0.566197
0.703417 1.190651 -0.566187
0.703347 1.191441 -0.566177
0.703277 1.192231 -0.566167
0.703207 1.193021 -0.566157
0.703137 1.193811 -0.566147
0.703067 1.194601 -0.566137
0.702997 1.195391 -0.566127
0.702927 1.196181 -0.566117
0.702857 1.196971 -0.566107
0.702787 1.197761 -0.566097
0.702717 1.198551 -0.566087
0.702647 1.199341 -0.566077
0.702577 1.200131 -0.566067
0.702507 1.200921 -0.566056
0.702437 1.201711 -0.566046
0.702367 1.202501 -0.566036
0.702297 1.203291 -0.566026
0.702227 1.204081 -0.566016
0.702157 1.204871 -0.566006
0.702087 1.205661 -0.565996
0.702017 1.206451 -0.565986
0.701948 1.207241 -0.565976
0.701878 1.208031 -0.565966
0.701808 1.208821 -0.565956
0.701738 1.209611 -0.565946
0.701668 1.210401 -0.565936
0.701598 1.211191 -0.565926
0.701528 1.211981 -0.565916
0.701458 1.212771 -0.565906
0.701388 1.213561 -0.565896
0.701318 1.214351 -0.565886
0.701248 1.215141 -0.565876
0.701178 1.215931 -0.565866
0.701108 1.216721 -0.565856
0.701038 1.217511 -0.565846
0.700968 1.218301 -0.565836
0.700898 1.219091 -0.565826
0.700828 1.219881 -0.565816
0.700758 1.220671 -0.565806
0.700688 1.221461 -0.565796
0.700618 1.222251 -0.565786
0.700548 1.223041 -0.565776
0.700478 1.223831 -0.565766
0.700408 1.224621 -0.565756
0.700338 1.225411 -0.565746
0.700268 1.226201 -0.565736
0.700198 1.226991 -0.565726
0.700128 1.227781 -0.565716
0.700058 1.228571 -0.565706
0.699988 1.229361 -0.565696
0.699918 1.230151 -0.565686
0.699848 1.230941 -0.565676
0.699778 1.231731 -0.565666
0.699708 1.232521 -0.565656
0.699638 1.233311 -0.565646
0.699568 1.234101 -0.565636
0.699498 1.234891 -0.565626
0.699428 1.235681 -0.565616
0.699358 1.236471 -0.565606
0.699288 1.237261 -0.565596
0.699218 1.238051 -0.565586
0.699148 1.238841 -0.565576
0.699079 1.239631 -0.565566
0.699009 1.240421 -0.565556
0.698939 1.241211 -0.565546
0.698869 1.242001 -0.565536
0.698799 1.242791 -0.565526
0.698729 1.243581 -0.565516
0.698659 1.244371 -0.565506
0.698589 1.245161 -0.565496
0.698519 1.245951 -0.565486
0.698449 1.246741 -0.565476
0.698379 1.247531 -0.565466
0.698309 1.248321 -0.565456
0.698239 1.249111 -0.565446
0.698169 1.249901 -0.565436
0.698099 1.250691 -0.565426
0.698889 1.250791 -0.565406
0.699679 1.250891 -0.565386
0.700469 1.250991 -0.565366
0.701259 1.251091 -0.565346
0.702049 1.251191 -0.565325
0.702839 1.251291 -0.565305
0.703629 1.251391 -0.565285
0.704419 1.251491 -0.565265
0.705209 1.251591 -0.565245
0.705999 1.251691 -0.565225
0.706789 1.251791 -0.565205
0.707579 1.251891 -0.565185
0.708369 1.251992 -0.565165
0.709159 1.252092 -0.565145
0.709949 1.252192 -0.565125
0.710739 1.252292 -0.565105
0.711529 1.252392 -0.565085
0.712319 1.252492 -0.565065
0.713109 1.252592 -0.565045
0.713899 1.252692 -0.565025
0.714689 1.252792 -0.565005
0.715479 1.252892 -0.564985
0.716269 1.252992 -0.564965
0.717059 1.253092 -0.564945
0.717849 1.253192 -0.564925
0.718639 1.253292 -0.564905
0.719429 1.253392 -0.564885
0.720219 1.253492 -0.564865
0.721009 1.253592 -0.564845
0.721799 1.253692 -0.564825
0.722589 1.253792 -0.564805
0.723379 1.253892 -0.564785
0.724169 1.253992 -0.564765
0.724959 1.254092 -0.564745
0.725749 1.254192 -0.564725
0.726539 1.254292 -0.564705
0.727329 1.254392 -0.564685
0.728119 1.254492 -0.564665
0.728909 1.254592 -0.564645
0.729699 1.254692 -0.564625
0.730489 1.254792 -0.564605
0.731279 1.254892 -0.564584
0.732069 1.254992 -0.564564
0.732859 1.255092 -0.564544
0.733649 1.255192 -0.564524
0.734439 1.255292 -0.564504
0.735229 1.255392 -0.564484
0.736019 1.255492 -0.564464
0.736809 1.255592 -0.564444
0.737599 1.255692 -0.564424
0.738389 1.255792 -0.564404
0.739179 1.255892 -0.564384
0.739969 1.255992 -0.564364
0.740759 1.256092 -0.564344
0.741549 1.256192 -0.564324
0.742339 1.256292 -0.564304
0.743129 1.256392 -0.564284
0.743919 1.256492 -0.564264
0.744709 1.256592 -0.564244
0.745499 1.256692 -0.564224
0.746289 1.256792 -0.564204
0.747079 1.256892 -0.564184
0.747869 1.256992 -0.564164
0.748659 1.257092 -0.564144
0.749449 1.257192 -0.564124
0.750239 1.257292 -0.564104
0.751029 1.257392 -0.564084
0.751819 1.257492 -0.564064
0.752609 1.257592 -0.564044
0.753399 1.257692 -0.564024
0.754189 1.257792 -0.564004
0.754979 1.257892 -0.563984
0.755769 1.257993 -0.563964
0.756559 1.258093 -0.563944
0.757349 1.258193 -0.563924
0.758139 1.258293 -0.563904
0.758929 1.258393 -0.563884
0.759719 1.258493 -0.563864
0.760509 1.258593 -0.563843
0.761299 1.258693 -0.563823
0.762089 1.258793 -0.563803
0.762879 1.258893 -0.563783
0.763669 1.258993 -0.563763
0.764459 1.259093 -0.563743
0.765249 1.259193 -0.563723
0.766039 1.259293 -0.563703
0.766829 1.259393 -0.563683
0.767619 1.259493 -0.563663
0.768409 1.259593 -0.563643
0.769199 1.259693 -0.563623
0.769989 1.259793 -0.563603
0.770779 1.259893 -0.563583
0.771569 1.259993 -0.563563
0.772359 1.260093 -0.563543
0.773149 1.260193 -0.563523
0.773939 1.260293 -0.563503
0.774729 1.260393 -0.563483
0.775519 1.260493 -0.563463
0.776309 1.260593 -0.563443
0.777099 1.260693 -0.563423
0.777889 1.260793 -0.563403
0.778679 1.260893 -0.563383
0.779469 1.260993 -0.563363
0.780259 1.261093 -0.563343
0.781049 1.261193 -0.563323
0.781839 1.261293 -0.563303
0.782629 1.261393 -0.563283
0.783419 1.261493 -0.563263
0.784209 1.261593 -0.563243
0.784999 1.261693 -0.563223
0.785789 1.261793 -0.563203
0.786579 1.261893 -0.563183
0.787369 1.261993 -0.563163
0.788159 1.262093 -0.563143
0.788949 1.262193 -0.563123
0.789739 1.262293 -0.563102
0.790529 1.262393 -0.563082
0.791319 1.262493 -0.563062
0.792109 1.262593 -0.563042
0.792899 1.262693 -0.563022
0.793689 1.262793 -0.563002
0.794479 1.262893 -0.562982
0.795269 1.262993 -0.562962
0.796059 1.263093 -0.562942
0.796849 1.263193 -0.562922
0.797639 1.263293 -0.562902
0.798429 1.263393 -0.562882
0.799219 1.263493 -0.562862
0.800009 1.263593 -0.562842
0.800799 1.263693 -0.562822
0.801589 1.263793 -0.562802
0.802379 1.263893 -0.562782
0.803169 1.263994 -0.562762
0.803959 1.264094 -0.562742
0.804749 1.264194 -0.562722
0.805539 1.264294 -0.562702
0.806329 1.264394 -0.562682
0.807119 1.264494 -0.562662
0.807909 1.264594 -0.562642
0.808699 1.264694 -0.562622
0.809489 1.264794 -0.562602
0.810279 1.264894 -0.562582
0.811069 1.264994 -0.562562
0.812679 1.264454 -0.562552
0.814289 1.263914 -0.562542
0.815899 1.263374 -0.562532
0.817509 1.262834 -0.562522
0.819119 1.262294 -0.562512
0.820729 1.261754 -0.562502
0.822339 1.261214 -0.562492
0.823949 1.260674 -0.562482
0.825559 1.260134 -0.562472
0.827169 1.259593 -0.562462
0.828779 1.259053 -0.562452
0.830389 1.258513 -0.562442
0.831999 1.257973 -0.562432
0.833609 1.257433 -0.562422
0.835219 1.256893 -0.562412
0.836829 1.256353 -0.562402
0.838439 1.255813 -0.562392
0.840048 1.255273 -0.562382
0.841658 1.254733 -0.562371
0.843268 1.254193 -0.562361
0.844878 1.253653 -0.562351
0.846488 1.253113 -0.562341
0.848098 1.252573 -0.562331
0.849708 1.252033 -0.562321
0.851318 1.251493 -0.562311
0.852928 1.250953 -0.562301
0.854538 1.250413 -0.562291
0.856148 1.249873 -0.562281
0.857758 1.249333 -0.562271
0.859368 1.248793 -0.562261
0.860978 1.248253 -0.562251
0.862588 1.247713 -0.562241
0.864198 1.247173 -0.562231
0.865808 1.246633 -0.562221
0.867418 1.246093 -0.562211
0.869028 1.245553 -0.562201
0.870638 1.245013 -0.562191
0.872248 1.244473 -0.562181
0.873858 1.243933 -0.562171
0.875468 1.243393 -0.562161
0.877078 1.242853 -0.562151
0.878688 1.242313 -0.562141
0.880298 1.241773 -0.562131
0.881908 1.241233 -0.562121
0.883518 1.240693 -0.562111
0.885128 1.240153 -0.562101
0.886738 1.239613 -0.562091
0.888348 1.239073 -0.562081
0.889958 1.238533 -0.562071
0.891568 1.237993 -0.562061
0.893178 1.237453 -0.562051
0.894788 1.236913 -0.562041
0.896398 1.236373 -0.562031
0.898008 1.235833 -0.562021
0.899618 1.235293 -0.562011
0.901228 1.234753 -0.562001
0.902838 1.234213 -0.561991
0.904448 1.233673 -0.561981
0.906058 1.233133 -0.561971
0.907668 1.232593 -0.561961
0.909278 1.232053 -0.561951
0.910888 1.231513 -0.561941
0.912498 1.230973 -0.561931
0.914108 1.230433 -0.561921
0.915718 1.229892 -0.561911
0.917328 1.229352 -0.561901
0.918938 1.228812 -0.561891
0.920548 1.228272 -0.561881
0.922158 1.227732 -0.561871
0.923768 1.227192 -0.561861
0.925377 1.226652 -0.561851
0.926987 1.226112 -0.561841
0.928597 1.225572 -0.561831
0.930207 1.225032 -0.561821
0.931817 1.224492 -0.561811
0.933427 1.223952 -0.561801
0.935037 1.223412 -0.561791
0.936647 1.222872 -0.561781
0.938257 1.222332 -0.561771
0.939867 1.221792 -0.561761
0.941477 1.221252 -0.561751
0.943087 1.220712 -0.561741
0.944697 1.220172 -0.561731
0.946307 1.219632 -0.561721
0.947917 1.219092 -0.561711
0.949527 1.218552 -0.561701
0.951137 1.218012 -0.561691
0.952747 1.217472 -0.561681
0.954357 1.216932 -0.561671
0.955967 1.216392 -0.561661
0.957577 1.215852 -0.561651
0.959187 1.215312 -0.561641
0.960797 1.214772 -0.561630
0.962407 1.214232 -0.561620
0.964017 1.213692 -0.561610
0.965627 1.213152 -0.561600
0.967237 1.212612 -0.561590
0.968847 1.212072 -0.561580
0.970457 1.211532 -0.561570
0.972067 1.210992 -0.561560
0.973677 1.210452 -0.561550
0.975287 1.209912 -0.561540
0.976897 1.209372 -0.561530
0.978507 1.208832 -0.561520
0.980117 1.208292 -0.561510
0.981727 1.207752 -0.561500
0.983337 1.207212 -0.561490
0.984947 1.206672 -0.561480
0.986557 1.206132 -0.561470
0.988167 1.205592 -0.561460
0.989777 1.205052 -0.561450
0.991387 1.204512 -0.561440
0.992997 1.203972 -0.561430
0.994607 1.203432 -0.561420
0.996217 1.202892 -0.561410
0.997827 1.202352 -0.561400
0.999437 1.201812 -0.561390
1.001047 1.201272 -0.561380
1.002657 1.200732 -0.561370
1.004267 1.200191 -0.561360
1.005877 1.199651 -0.561350
1.007487 1.199111 -0.561340
1.009097 1.198571 -0.561330
1.010707 1.198031 -0.561320
1.012317 1.197491 -0.561310
1.013927 1.196951 -0.561300
1.015537 1.196411 -0.561290
1.017147 1.195871 -0.561280
1.018757 1.195331 -0.561270
1.020367 1.194791 -0.561260
1.021977 1.194251 -0.561250
1.023587 1.193711 -0.561240
1.025197 1.193171 -0.561230
1.026807 1.192631 -0.561220
1.028417 1.192091 -0.561210
1.030027 1.191551 -0.561200
1.031637 1.191011 -0.561190
1.033247 1.190471 -0.561180
1.034858 1.189931 -0.561170
1.036468 1.189391 -0.561160
1.038078 1.188851 -0.561150
1.039688 1.188311 -0.561140
1.041298 1.187771 -0.561130
1.042908 1.187231 -0.561120
1.044518 1.186691 -0.561110
1.046128 1.186151 -0.561100
1.047738 1.185611 -0.561090
1.049348 1.185071 -0.561080
1.050958 1.184531 -0.561070
1.052568 1.183991 -0.561060
1.054178 1.183451 -0.561050
1.055788 1.182911 -0.561040
1.057398 1.182371 -0.561030
1.059008 1.181831 -0.561020
1.060618 1.181291 -0.561010
1.062228 1.180751 -0.561000
1.063838 1.180211 -0.560990
1.065448 1.179671 -0.560980
1.067058 1.179131 -0.560970
1.068668 1.178591 -0.560960
1.070278 1.178051 -0.560950
1.071888 1.177511 -0.560940
1.073498 1.176971 -0.560930
1.075109 1.176431 -0.560920
1.076719 1.175891 -0.560910
1.078329 1.175351 -0.560899
1.079939 1.174811 -0.560889
1.080729 1.174911 -0.560869
1.081519 1.175011 -0.560849
1.082309 1.175111 -0.560829
1.083099 1.175211 -0.560809
1.083889 1.175311 -0.560789
1.084679 1.175411 -0.560769
1.085469 1.175511 -0.560749
1.086259 1.175611 -0.560729
1.087049 1.175711 -0.560709
1.087839 1.175811 -0.560689
1.088629 1.175911 -0.560669
1.089419 1.176011 -0.560649
1.090209 1.176111 -0.560629
1.090999 1.176211 -0.560609
1.091789 1.176311 -0.560589
1.092579 1.176411 -0.560569
1.093369 1.176511 -0.560549
1.094159 1.176611 -0.560529
1.094949 1.176711 -0.560509
1.095739 1.176811 -0.560489
1.096529 1.176911 -0.560469
1.097319 1.177011 -0.560449
1.098109 1.177111 -0.560429
1.098899 1.177211 -0.560409
1.099689 1.177311 -0.560389
1.100479 1.177411 -0.560369
1.101269 1.177511 -0.560349
1.102059 1.177611 -0.560329
1.102849 1.177711 -0.560309
1.103639 1.177811 -0.560289
1.104429 1.177911 -0.560269
1.105219 1.178011 -0.560249
1.106009 1.178111 -0.560229
1.106799 1.178211 -0.560209
1.107589 1.178311 -0.560189
1.108379 1.178411 -0.560169
1.109169 1.178511 -0.560148
1.109959 1.178611 -0.560128
1.110749 1.178711 -0.560108
1.111539 1.178811 -0.560088
1.112329 1.178911 -0.560068
1.113119 1.179011 -0.560048
1.113909 1.179111 -0.560028
1.114699 1.179211 -0.560008
1.115489 1.179311 -0.559988
1.116279 1.179411 -0.559968
1.117069 1.179511 -0.559948
1.117859 1.179611 -0.559928
1.118649 1.179711 -0.559908
1.119439 1.179811 -0.559888
1.120229 1.179911 -0.559868
1.121019 1.180012 -0.559848
1.121809 1.180112 -0.559828
1.122599 1.180212 -0.559808
1.123389 1.180312 -0.559788
1.124179 1.180412 -0.559768
1.124969 1.180512 -0.559748
1.125759 1.180612 -0.559728
1.126549 1.180712 -0.559708
1.127339 1.180812 -0.559688
1.128129 1.180912 -0.559668
1.128919 1.181012 -0.559648
1.129709 1.181112 -0.559628
1.130499 1.181212 -0.559608
1.131289 1.181312 -0.559588
1.132079 1.181412 -0.559568
1.132869 1.181512 -0.559548
1.133659 1.181612 -0.559528
1.134449 1.181712 -0.559508
1.135239 1.181812 -0.559488
1.136029 1.181912 -0.559468
1.136819 1.182012 -0.559448
1.137609 1.182112 -0.559427
1.138399 1.182212 -0.559407
1.139189 1.182312 -0.559387
1.139979 1.182412 -0.559367
1.140769 1.182512 -0.559347
1.141559 1.182612 -0.559327
1.142349 1.182712 -0.559307
1.143139 1.182812 -0.559287
1.143929 1.182912 -0.559267
1.144719 1.183012 -0.559247
1.145509 1.183112 -0.559227
1.146299 1.183212 -0.559207
1.147089 1.183312 -0.559187
1.147879 1.183412 -0.559167
1.148669 1.183512 -0.559147
1.149459 1.183612 -0.559127
1.150249 1.183712 -0.559107
1.151039 1.183812 -0.559087
1.151829 1.183912 -0.559067
1.152619 1.184012 -0.559047
1.153409 1.184112 -0.559027
1.154199 1.184212 -0.559007
1.154989 1.184312 -0.558987
1.155779 1.184412 -0.558967
1.156569 1.184512 -0.558947
1.157359 1.184612 -0.558927
1.158149 1.184712 -0.558907
1.158939 1.184812 -0.558887
1.159729 1.184912 -0.558867
1.160519 1.185012 -0.558847
1.161309 1.185112 -0.558827
1.162099 1.185212 -0.558807
1.162889 1.185312 -0.558787
1.163679 1.185412 -0.558767
1.164469 1.185512 -0.558747
1.165259 1.185612 -0.558727
1.166049 1.185712 -0.558707
1.166839 1.185812 -0.558686
1.167629 1.185912 -0.558666
1.168419 1.186013 -0.558646
1.169209 1.186113 -0.558626
1.169999 1.186213 -0.558606
1.170789 1.186313 -0.558586
1.171579 1.186413 -0.558566
1.172369 1.186513 -0.558546
1.173159 1.186613 -0.558526
1.173949 1.186713 -0.558506
1.174739 1.186813 -0.558486
1.175529 1.186913 -0.558466
1.176319 1.187013 -0.558446
1.177109 1.187113 -0.558426
1.177899 1.187213 -0.558406
1.178689 1.187313 -0.558386
1.179479 1.187413 -0.558366
1.180269 1.187513 -0.558346
1.181059 1.187613 -0.558326
1.181849 1.187713 -0.558306
1.182639 1.187813 -0.558286
1.183429 1.187913 -0.558266
1.184219 1.188013 -0.558246
1.185009 1.188113 -0.558226
1.185799 1.188213 -0.558206
1.186589 1.188313 -0.558186
1.187379 1.188413 -0.558166
1.188169 1.188513 -0.558146
1.188959 1.188613 -0.558126
1.189749 1.188713 -0.558106
1.190539 1.188813 -0.558086
1.191329 1.188913 -0.558066
1.192119 1.189013 -0.558046
1.192909 1.189113 -0.558026
1.193699 1.189213 -0.558006
1.194489 1.189313 -0.557986
1.195279 1.189413 -0.557966
1.196069 1.189513 -0.557945
1.196859 1.189613 -0.557925
1.197649 1.189713 -0.557905
1.198439 1.189813 -0.557885
1.199229 1.189913 -0.557865
1.200019 1.190013 -0.557845
1.200809 1.190113 -0.557825
1.201599 1.190213 -0.557805
1.202389 1.190313 -0.557785
1.203179 1.190413 -0.557765
1.203969 1.190513 -0.557745
1.204759 1.190613 -0.557725
1.205549 1.190713 -0.557705
1.206339 1.190813 -0.557685
1.207129 1.190913 -0.557665
1.207919 1.191013 -0.557645
1.208709 1.191113 -0.557625
1.209499 1.191213 -0.557605
1.210289 1.191313 -0.557585
1.211079 1.191413 -0.557565
1.211869 1.191513 -0.557545
1.212659 1.191613 -0.557525
1.213449 1.191713 -0.557505
1.214239 1.191813 -0.557485
1.215029 1.191913 -0.557465
1.215819 1.192014 -0.557445
1.216609 1.192114 -0.557425
1.217399 1.192214 -0.557405
1.218189 1.192314 -0.557385
1.218979 1.192414 -0.557365
1.219769 1.192514 -0.557345
1.220559 1.192614 -0.557325
1.221349 1.192714 -0.557305
1.222139 1.192814 -0.557285
1.222929 1.192914 -0.557265
1.223719 1.193014 -0.557245
1.224509 1.193114 -0.557225
1.225299 1.193214 -0.557204
1.226089 1.193314 -0.557184
1.226879 1.193414 -0.557164
1.227669 1.193514 -0.557144
1.228459 1.193614 -0.557124
1.229249 1.193714 -0.557104
1.230039 1.193814 -0.557084
1.230829 1.193914 -0.557064
1.231619 1.194014 -0.557044
1.232409 1.194114 -0.557024
1.233199 1.194214 -0.557004
1.233989 1.194314 -0.556984
1.234779 1.194414 -0.556964
1.235569 1.194514 -0.556944
1.236359 1.194614 -0.556924
1.237149 1.194714 -0.556904
1.237939 1.194814 -0.556884
1.238729 1.194914 -0.556864
1.239519 1.195014 -0.556844
1.240309 1.195114 -0.556824
1.241099 1.195214 -0.556804
1.241889 1.195314 -0.556784
1.242679 1.195414 -0.556764
1.243469 1.195514 -0.556744
1.244259 1.195614 -0.556724
1.245049 1.195714 -0.556704
1.245839 1.195814 -0.556684
1.246629 1.195914 -0.556664
1.247419 1.196014 -0.556644
1.248209 1.196114 -0.556624
1.248139 1.196904 -0.556614
1.248069 1.197694 -0.556604
1.247999 1.198484 -0.556594
1.247929 1.199274 -0.556584
1.247859 1.200064 -0.556574
1.247789 1.200854 -0.556564
1.247719 1.201644 -0.556554
1.247649 1.202434 -0.556544
1.247579 1.203224 -0.556534
1.247509 1.204014 -0.556524
1.247439 1.204804 -0.556514
1.247369 1.205594 -0.556504
1.247299 1.206384 -0.556494
1.247229 1.207174 -0.556484
1.247159 1.207964 -0.556473
